{
  "levels": [
    {
      "inputs": [0.14883633406016117, 0, 0, 0, 0.059826486933918344],
      "outputs": [0, 1, 1, 0, 0, 0],
      "biases": [
        -0.050292707895215505, -0.3168062507457663, -0.13537237366186997,
        0.09546383039180183, 0.3043721791923635, 0.17855675178143612
      ],
      "weights": [
        [
          -0.37968273366185573, -0.40215689494121865, -0.0036105964442611493,
          -0.06223540893541005, -0.33458796610422525, -0.5143078501448377
        ],
        [
          0.2672664924588986, -0.07788395493548479, 0.060771797486196974,
          0.38630872843013075, 0.10767430484876328, -0.946809570996769
        ],
        [
          0.37394216013809045, -0.3561876199075634, 0.09772358850438928,
          0.43021501368433396, -0.5196687772053322, -0.9993888714290287
        ],
        [
          0.18625990639799006, -0.229565905996464, -0.16271200444666328,
          0.06640647447485831, 0.07621971523841486, 0.6157344790217922
        ],
        [
          -0.04339104984135983, 0.34443303303920286, -0.3330618869192211,
          0.02032164219567581, -0.24893190503408358, 0.7259218618138226
        ]
      ]
    },
    {
      "inputs": [0, 1, 1, 0, 0, 0],
      "outputs": [1, 1, 1, 0],
      "biases": [
        -0.37138939590622794, 0.11008973821471821, 0.18403836864740647,
        0.1725227571265944
      ],
      "weights": [
        [
          -0.19943729530919546, 0.3515151153294013, -0.1849616804592982,
          -0.5766158036327576, 0.2371492447842885, -0.508163506425234
        ],
        [
          0.4154456185362667, 0.2707122044945248, 0.030890675669549453,
          -0.1725328327084133, 0.3993077306780443, 0.4865211418601431
        ],
        [
          -0.09313285323670448, -0.09653835864385228, 0.20127901643048543,
          -0.0501809090172495, 0.19339661595239271, -0.33128256472531037
        ],
        [
          -0.20598052549923307, 0.168780226315337, 0.1583883924309099,
          0.24334042173718975, -0.34496848698624183, 0.13548182230841832
        ],
        [
          0.0018696297101699622, -0.03801074853033348, -0.4916735895423886,
          0.3055372757437318, -0.2701082745571685, 0.19234021455998096
        ],
        [
          0.19899553221066574, 0.1435686722921345, 0.13025734918593557,
          0.22498715918992648, 0.19201737655503331, 0.0302560787910452
        ]
      ]
    }
  ]
}
