{
  "levels": [
    {
      "inputs": [0, 0, 0, 0, 0.4295412504379461],
      "outputs": [0, 0, 1, 0, 0, 1],
      "biases": [
        0.30439061305039794, -0.009402501989105583, -0.5236352050020697,
        0.0990073657674535, 0.29243670366881724, 0.017303765039562713
      ],
      "weights": [
        [
          0.33422887955969144, -0.2732859605140473, -0.12565603933766448,
          0.0630875799069528, 0.41187263887238457, -0.5143078501448377
        ],
        [
          -0.0912395199549978, -0.18780196942350375, 0.07700444790597893,
          0.2090935666078198, 0.19526000484573328, -0.946809570996769
        ],
        [
          0.007943812906789027, -0.08986010687667903, -0.3036761024565046,
          -0.020712067767965497, -0.14094983033725383, -0.9993888714290287
        ],
        [
          -0.06692789302151728, -0.09597810146223144, -0.5031931254339282,
          0.17022863618154993, 0.1853348719774037, 0.6157344790217922
        ],
        [
          -0.04889985390962835, -0.1141752040769827, -0.44400937360618503,
          0.2159490670541067, 0.14239571448327637, 0.7259218618138226
        ]
      ]
    },
    {
      "inputs": [0, 0, 1, 0, 0, 1],
      "outputs": [1, 0, 0, 0],
      "biases": [
        -0.3069672818232365, 0.24274931554509968, 0.06010447707115614,
        0.1972209055099453
      ],
      "weights": [
        [
          0.13938004536703313, 0.1965385602867185, 0.34985346313540516,
          -0.09321860151224617, -0.19516603763850945, -0.11091764954999613
        ],
        [
          0.22752372900663131, 0.33607967835837127, 0.16616099947671303,
          -0.08284377224047842, -0.35604381034015437, 0.10262409535588671
        ],
        [
          -0.0957515072981525, -0.4136408843835643, 0.2899712256700713,
          0.131679260784799, -0.07730588525036078, 0.1916430658551866
        ],
        [
          0.08747383691756042, 0.2629167995618608, 0.022016387150011252,
          -0.23746363516020297, 0.20338872969003674, -0.37345266275847944
        ],
        [
          -0.20581675525939097, -0.07744928217641761, -0.017771191314598034,
          0.06279114718920759, -0.19960456984994387, -0.05184777245960241
        ],
        [
          0.022490530811790088, 0.517578248920849, -0.38788734137908515,
          0.019118161560154702, -0.045592693808471765, 0.18402364662649215
        ]
      ]
    }
  ]
}
