{
  "levels": [
    {
      "inputs": [0.36237806910940107, 0, 0, 0, 0],
      "outputs": [0, 1, 0, 0, 1, 1],
      "biases": [
        -0.1006694085445808, -0.1370157127141337, 0.028258896255877186,
        0.11681277777925758, -0.02351538253097084, -0.3075998947963692
      ],
      "weights": [
        [
          -0.3703200380534931, -0.02678282601516825, -0.08344392625139217,
          0.3053502437589167, 0.0020917322895941982, 0.22121280813348942
        ],
        [
          0.03552392868939831, 0.1971204768178731, 0.04814280117873958,
          0.08514934254707603, 0.007512146443831613, 0.3591760461899889
        ],
        [
          -0.16419025703461237, -0.13348217687341912, -0.27922973081802943,
          0.07571022494527092, 0.16156272002626293, 0.011935834206242113
        ],
        [
          -0.07381634850388855, -0.06707000015276295, -0.3566596698688409,
          -0.03977279429674446, 0.10627146545561952, -0.18559813955434157
        ],
        [
          0.07920546759094405, 0.16297810268329532, -0.21281357062570394,
          -0.06686057533125392, -0.2619549749082061, -0.7627034545135563
        ]
      ]
    },
    {
      "inputs": [0, 1, 0, 0, 1, 1],
      "outputs": [1, 0, 1, 0, 0, 0],
      "biases": [
        -0.24365233522110122, 0.08384351734831344, -0.01915891101417424,
        0.12369011342831035, 0.13365531282748527, 0.13432102224765974
      ],
      "weights": [
        [
          -0.19916554426806282, -0.052363388703544206, 0.16330260321324774,
          0.1741386097622074, -0.20997044358490974, -0.06837139629307881
        ],
        [
          -0.052330247169020266, -0.16060814380428842, -0.13424229906999635,
          0.17685659959903566, 0.07320101686974463, 0.06343240279799481
        ],
        [
          0.18820681606607123, 0.18403773491880493, 0.08485875948652125,
          -0.18981055042887518, -0.3540439874476795, 0.01780178857860061
        ],
        [
          0.010796978171633137, -0.28396518352356204, -0.2767518453116569,
          -0.023470781141475057, -0.24405845208793717, 0.29463391120574184
        ],
        [
          -0.08973204049604894, 0.07619598725188213, 0.2126600353527772,
          -0.24360191087674948, -0.0685094847920947, -0.23917556342592114
        ],
        [
          0.09502806450906776, -0.16082605793175045, -0.07183169755009917,
          -0.3880931887867335, -0.18562893836182012, 0.2578989119499331
        ]
      ]
    },
    {
      "inputs": [1, 0, 1, 0, 0, 0],
      "outputs": [1, 1, 0, 1],
      "biases": [
        -0.27666784918235554, -0.06988164681972533, 0.2621237116680977,
        -0.1255253617391041
      ],
      "weights": [
        [
          0.397682380963546, 0.07951967932067627, 0.053840222012628856,
          -0.06002617977298525, -0.036545657043795914, -0.13509200927253306
        ],
        [
          -0.03753048871771185, 0.14339216501625945, 0.27667706441405276,
          0.006136137831255675, 0.29254411380458356, -0.12887896122434656
        ],
        [
          0.011396397901626054, 0.11813660774564326, -0.42013574140389026,
          0.07568080101928952, -0.21902258395376106, 0.056822655703700944
        ],
        [
          0.054151446465325104, -0.05456633561059932, -0.03979433732858982,
          -0.15036835120209524, 0.03310264460161802, 0.22362079830626289
        ],
        [
          0.10744703651345808, -0.08244210529977528, -0.1695810971033378,
          -0.10417466845725967, -0.016611841725342733, 0.27038809446892287
        ],
        [
          0.38842521447952805, -0.24880882303238944, 0.3494639056485989,
          -0.15585505454357798, 0.19482124516812033, -0.03096804352291288
        ]
      ]
    }
  ]
}
