{
  "levels": [
    {
      "inputs": [0, 0, 0, 0, 0.33309971434093677],
      "outputs": [0, 1, 0, 1, 0, 0],
      "biases": [
        -0.09537441269662508, -0.15972998683136758, 0.07870630351307624,
        -0.1927747371572726, 0.05789625625555553, 0.0919935927358896
      ],
      "weights": [
        [
          0.16714455245525098, 0.08259548996257199, -0.16684001428429646,
          0.3486320403646358, 0.13470098295530653, 0.2833342148121507
        ],
        [
          0.10074773176421051, 0.2358471779065131, 0.0757275431399671,
          0.09850818413667053, -0.3768559890891292, 0.8831027822068123
        ],
        [
          -0.04211745859046183, 0.3639495381799417, 0.19421349471808066,
          0.28430222827196994, -0.519517610253412, -0.5935352941174061
        ],
        [
          -0.1529063775492897, 0.12911402807640915, -0.22927250870133836,
          0.588096840050788, 0.3028488130806157, -0.6303696273565103
        ],
        [
          -0.3046590854924539, 0.005567531164733585, -0.16645097158769717,
          -0.16102828149365697, 0.13907268645320672, 0.09862884930306626
        ]
      ]
    },
    {
      "inputs": [0, 1, 0, 1, 0, 0],
      "outputs": [0, 1, 0, 0],
      "biases": [
        0.41133523967455754, 0.09835039657521277, -0.25011445434228535,
        -0.13262441432445998
      ],
      "weights": [
        [
          0.40636686277060274, -0.28148678167321256, 0.11672686017812256,
          -0.20653969297586403, -0.12110120931361713, 0.05075188328945114
        ],
        [
          0.017240830367714875, 0.4600283218650806, 0.1438233399280827,
          -0.14691766831550127, -0.023513497757529603, 0.10227395893302649
        ],
        [
          0.029422766046109477, -0.2900116746378594, 0.25681289825263154,
          -0.3068745231719572, 0.1510561338709198, -0.08101020689009346
        ],
        [
          0.0408842955439532, -0.2658359741117615, -0.4070141939629222,
          -0.14699247612165628, -0.28288586709623875, 0.19228248965498596
        ],
        [
          0.1853880876020595, 0.29773294881088663, -0.14741477752716176,
          -0.3002408835668147, -0.10357191322588033, -0.1555561412604498
        ],
        [
          0.3646001716164537, -0.004890203392948628, 0.10331620534600469,
          0.1110157856716521, -0.008896977239756104, 0.0969787876426233
        ]
      ]
    }
  ]
}
